-0.06335279229756204900000000000000,-0.4611417358436991600000000000000,0.03474822903158036900000000000000,-0.001608332078654190900000000000000,-0.1541166130125916900000000000000,0.962283163674887200000000000000,-1.884956635149971400000000000000,-1.096808210888139600000000000000,-0.224626075921776300000000000000,-0.1354861067409527400000000000000,0.1630481778990132100000000000000,0.8511139662094915300000000000000,0.004570411959646185400000000000000,-1.349485579001362900000000000000,-0.005440605576429228400000000000000,0.3491186707107438700000000000000,0.8037856378534261600000000000000,-1.205305471437547700000000000000,-0.00825415267241455700000000000000,-0.1677099035700279400000000000000,0.007100994014634422400000000000000,0.2234927912868862900000000000000,0.01064832381185627300000000000000,0.1576411962839429900000000000000,0.03937176464274729600000000000000,0.5112110882825877700000000000000,2.464063768675624800000000000000,-1.101938601475908100000000000000,1.20793914754842800000000000000,-0.8319087801190381300000000000000,-0.3473616150996177200000000000000,-1.231336249820944400000000000000,-0.0177712209253400800000000000000,1.770940140248891100000000000000,-0.154565980230115200000000000000,1.674926033059324500000000000000,-1.936850025717136600000000000000,1.1593572056006400000000000000,-0.6354151569932379200000000000000,0.2317353050515167400000000000000,0.5159374289729338200000000000000,-0.3917913178944236200000000000000,0.1368235556426218600000000000000,0.4084026169255177100000000000000,0.2510908631538480400000000000000,-3.063061790262005400000000000000,0.7911042045686884600000000000000,1.976275430675113100000000000000,-1.789134141370485800000000000000,0.5345680548408240400000000000000,1.223922296973941400000000000000,-2.031867802529076600000000000000,0.07307185461612955600000000000000,0.4706664280333271400000000000000,0.2823772029476067100000000000000,0.6790783203095586100000000000000,-0.5654289528553476700000000000000,0.755671231731079200000000000000,0.2551098916518120800000000000000,-0.1675852099803081800000000000000,-0.1360474517929089200000000000000,0.4674735726143536800000000000000,-0.07164252782024205200000000000000,1.129164362358175100000000000000,-0.07300431477246080400000000000000,-1.231044569972383500000000000000,-0.1509815229019834100000000000000,-1.041707868538576100000000000000,1.085601310765179200000000000000,-0.6334694804292199100000000000000,-0.7779716651861999800000000000000,-2.489396149285691100000000000000,-0.5842865945004933600000000000000,-0.4834014411461947100000000000000,0.2360172047102905600000000000000,-1.010501982739424600000000000000,-2.369177751611258700000000000000,-0.3095128189898083700000000000000,-0.3992349818046148100000000000000,-0.517288036636627700000000000000,-0.755620909371587100000000000000,1.845175262050826200000000000000,-0.1946023865349737200000000000000,-1.921884277039278100000000000000,-0.04236914638147365500000000000000,-1.063991557180153900000000000000,2.564743723293190700000000000000,0.8743742991270924100000000000000,-0.238675974277335700000000000000,0.9092019094703699400000000000000,-0.6192919403498959900000000000000,0.2824279714247589500000000000000,-0.1664735973033562600000000000000,-0.6256606585748467600000000000000,0.2056457879496192400000000000000,-0.09423950634443761800000000000000,-1.452837806522725400000000000000,-0.1825177892664834600000000000000,-0.0771113131082993700000000000000,-0.08800257035996773800000000000000,0.7339902642658139300000000000000,-2.872088215881521300000000000000,0.6918810444518808100000000000000,1.129127422761735600000000000000,0.1644186617579502800000000000000,1.274931836084157500000000000000,1.401707289278842300000000000000,1.475472467289893600000000000000,-0.1754663668769312600000000000000,0.538571758834572200000000000000,-0.6523739356741423700000000000000,1.430139187241928200000000000000,0.5455595460882872700000000000000,1.460839866091285600000000000000,0.1163013181579510700000000000000,-0.415409645122735200000000000000,1.160847584321490300000000000000,-0.4234503706767333600000000000000,-0.06040677207374460500000000000000,-3.071445298227575700000000000000,1.976788898799159100000000000000,-1.349291175208246800000000000000,-0.05047311965016758300000000000000,-1.036254108877184200000000000000,0.2611779562693728500000000000000,-0.2213217797525634500000000000000,1.816648607158714700000000000000,0.3346755265841664400000000000000,4.079800011145787900000000000000,0.6653137568985122400000000000000,1.807988965617132400000000000000,-1.037356381619380900000000000000,-0.3516579029119249500000000000000,-1.052467980305400500000000000000,0.2077065084209239200000000000000,1.337161125804583500000000000000,2.446969532966680700000000000000,-2.429622588273348900000000000000,-0.5717771875553873100000000000000,3.135228145507060700000000000000,1.983158534982087300000000000000,4.633416868123517500000000000000,0.1913968159045532400000000000000,0.7293867827018459800000000000000,0.1604448697345826300000000000000,-2.5348177624940500000000000000,-1.841473245927421200000000000000,1.195013629549351200000000000000,-3.748089431085018600000000000000,-1.457984456080971200000000000000,-2.016949492393104800000000000000,2.025923135974356400000000000000,-0.2910910220456230400000000000000,-0.1582898516816712600000000000000,0.1808804583680641300000000000000,-0.4956480575943254500000000000000,-3.207634882637941100000000000000,2.168188882834973400000000000000,-1.732622992333441300000000000000,0.07720221192060686100000000000000,-0.0004303151864410000200000000000000,-1.273863050332987100000000000000,-0.119132088002422600000000000000,0.28237046798490600000000000000,0.1472040566360531500000000000000,-0.8716442711022196500000000000000,-0.2073599845088914300000000000000,-0.2259907557947168100000000000000,-0.4383556342233473300000000000000,-0.03565433673505272200000000000000,-4.409749116122221800000000000000,-4.110009154244057300000000000000,2.035109043173505500000000000000,4.629195633154205700000000000000,4.667666027685638300000000000000,-3.473211805961377700000000000000,0.7795790207031574300000000000000,0.3602520744023162100000000000000,0.9612590095438620100000000000000,1.643718238931074500000000000000,2.414990005271431300000000000000,-3.606870623976550700000000000000,0.1311631024861273600000000000000,-0.01112692862010951500000000000000,-1.952311697939545200000000000000,3.167815848030840300000000000000,5.309814778932346400000000000000,-2.865736145730033400000000000000,3.369205698492243600000000000000,4.808381195073008200000000000000,-3.120009483777270300000000000000,0.2336966918853278500000000000000,-0.5034905772967882600000000000000,5.826096168963089500000000000000,-7.700096942225846100000000000000,4.02043239094214400000000000000,4.146363857946275800000000000000,4.969944897986139600000000000000,-1.805571696489004100000000000000,0.5929289707859071200000000000000,-0.3970988991269024400000000000000,0.06031271288837441300000000000000,2.115110255818568600000000000000